<?xml version="1.0"?>
<opencv_storage>
<cascade>
  <stageType>BOOST</stageType>
  <featureType>HAAR</featureType>
  <height>50</height>
  <width>50</width>
  <stageParams>
    <boostType>GAB</boostType>
    <minHitRate>9.9500000476837158e-01</minHitRate>
    <maxFalseAlarm>5.0000000000000000e-01</maxFalseAlarm>
    <weightTrimRate>9.4999999999999996e-01</weightTrimRate>
    <maxDepth>1</maxDepth>
    <maxWeakCount>100</maxWeakCount></stageParams>
  <featureParams>
    <maxCatCount>0</maxCatCount>
    <featSize>1</featSize>
    <mode>ALL</mode></featureParams>
  <stageNum>20</stageNum>
  <stages>
    <!-- stage 0 -->
    <_>
      <maxWeakCount>3</maxWeakCount>
      <stageThreshold>1.1614624261856079e+00</stageThreshold>
      <weakClassifiers>
        <_>
          <internalNodes>
            0 -1 21 1.9051600247621536e-03</internalNodes>
          <leafValues>
            9.8009949922561646e-01 -6.6666668653488159e-01</leafValues></_>
        <_>
          <internalNodes>
            0 -1 28 1.7639209982007742e-03</internalNodes>
          <leafValues>
            9.7329550981521606e-01 -8.0301213264465332e-01</leafValues></_>
        <_>
          <internalNodes>
            0 -1 24 -7.6705147512257099e-04</internalNodes>
          <leafValues>
            -6.6136616468429565e-01 9.8437505960464478e-01</leafValues></_></weakClassifiers></_>
    <!-- stage 1 -->
    <_>
      <maxWeakCount>1</maxWeakCount>
      <stageThreshold>9.7044336795806885e-01</stageThreshold>
      <weakClassifiers>
        <_>
          <internalNodes>
            0 -1 12 5.5541819892823696e-03</internalNodes>
          <leafValues>
            9.7044336795806885e-01 -1.</leafValues></_></weakClassifiers></_>
    <!-- stage 2 -->
    <_>
      <maxWeakCount>1</maxWeakCount>
      <stageThreshold>9.7044336795806885e-01</stageThreshold>
      <weakClassifiers>
        <_>
          <internalNodes>
            0 -1 0 1.4407507842406631e-04</internalNodes>
          <leafValues>
            9.7044336795806885e-01 -1.</leafValues></_></weakClassifiers></_>
    <!-- stage 3 -->
    <_>
      <maxWeakCount>1</maxWeakCount>
      <stageThreshold>9.7044336795806885e-01</stageThreshold>
      <weakClassifiers>
        <_>
          <internalNodes>
            0 -1 33 -7.1110774297267199e-04</internalNodes>
          <leafValues>
            -1. 9.7044336795806885e-01</leafValues></_></weakClassifiers></_>
    <!-- stage 4 -->
    <_>
      <maxWeakCount>3</maxWeakCount>
      <stageThreshold>1.2071064710617065e+00</stageThreshold>
      <weakClassifiers>
        <_>
          <internalNodes>
            0 -1 3 -7.5198896229267120e-04</internalNodes>
          <leafValues>
            -6.0000002384185791e-01 9.7029703855514526e-01</leafValues></_>
        <_>
          <internalNodes>
            0 -1 7 -1.4662969112396240e-01</internalNodes>
          <leafValues>
            -7.6319050788879395e-01 9.5764619112014771e-01</leafValues></_>
        <_>
          <internalNodes>
            0 -1 32 -1.6684635193087161e-04</internalNodes>
          <leafValues>
            -5.3820568323135376e-01 1.</leafValues></_></weakClassifiers></_>
    <!-- stage 5 -->
    <_>
      <maxWeakCount>3</maxWeakCount>
      <stageThreshold>1.0693008899688721e+00</stageThreshold>
      <weakClassifiers>
        <_>
          <internalNodes>
            0 -1 36 3.7283047277014703e-05</internalNodes>
          <leafValues>
            9.8000001907348633e-01 -4.2857143282890320e-01</leafValues></_>
        <_>
          <internalNodes>
            0 -1 27 -1.4188763452693820e-04</internalNodes>
          <leafValues>
            -8.9287692308425903e-01 9.5049899816513062e-01</leafValues></_>
        <_>
          <internalNodes>
            0 -1 31 -3.3788397558964789e-05</internalNodes>
          <leafValues>
            -7.6161706447601318e-01 9.8217779397964478e-01</leafValues></_></weakClassifiers></_>
    <!-- stage 6 -->
    <_>
      <maxWeakCount>2</maxWeakCount>
      <stageThreshold>4.0102174878120422e-01</stageThreshold>
      <weakClassifiers>
        <_>
          <internalNodes>
            0 -1 13 -6.4126928918994963e-05</internalNodes>
          <leafValues>
            -2.5000000000000000e-01 9.7989952564239502e-01</leafValues></_>
        <_>
          <internalNodes>
            0 -1 29 -6.6347900428809226e-05</internalNodes>
          <leafValues>
            -5.7887774705886841e-01 9.7959184646606445e-01</leafValues></_></weakClassifiers></_>
    <!-- stage 7 -->
    <_>
      <maxWeakCount>1</maxWeakCount>
      <stageThreshold>9.7044336795806885e-01</stageThreshold>
      <weakClassifiers>
        <_>
          <internalNodes>
            0 -1 22 1.4982828870415688e-02</internalNodes>
          <leafValues>
            9.7044336795806885e-01 -1.</leafValues></_></weakClassifiers></_>
    <!-- stage 8 -->
    <_>
      <maxWeakCount>1</maxWeakCount>
      <stageThreshold>9.8019802570343018e-01</stageThreshold>
      <weakClassifiers>
        <_>
          <internalNodes>
            0 -1 23 1.1824785172939301e-01</internalNodes>
          <leafValues>
            9.8019802570343018e-01 -1.</leafValues></_></weakClassifiers></_>
    <!-- stage 9 -->
    <_>
      <maxWeakCount>3</maxWeakCount>
      <stageThreshold>1.2556722164154053e+00</stageThreshold>
      <weakClassifiers>
        <_>
          <internalNodes>
            0 -1 6 5.7218736037611961e-04</internalNodes>
          <leafValues>
            9.7029703855514526e-01 -6.0000002384185791e-01</leafValues></_>
        <_>
          <internalNodes>
            0 -1 26 1.4488416491076350e-03</internalNodes>
          <leafValues>
            9.5743876695632935e-01 -6.9624280929565430e-01</leafValues></_>
        <_>
          <internalNodes>
            0 -1 16 -1.5301926760002971e-04</internalNodes>
          <leafValues>
            -5.1746350526809692e-01 9.8161798715591431e-01</leafValues></_></weakClassifiers></_>
    <!-- stage 10 -->
    <_>
      <maxWeakCount>2</maxWeakCount>
      <stageThreshold>4.0000000596046448e-01</stageThreshold>
      <weakClassifiers>
        <_>
          <internalNodes>
            0 -1 4 -7.3843992140609771e-05</internalNodes>
          <leafValues>
            -6.0000002384185791e-01 9.7029703855514526e-01</leafValues></_>
        <_>
          <internalNodes>
            0 -1 37 6.7366330767981708e-05</internalNodes>
          <leafValues>
            1. -4.5476332306861877e-01</leafValues></_></weakClassifiers></_>
    <!-- stage 11 -->
    <_>
      <maxWeakCount>3</maxWeakCount>
      <stageThreshold>1.3208563327789307e+00</stageThreshold>
      <weakClassifiers>
        <_>
          <internalNodes>
            0 -1 25 -3.3721371437422931e-04</internalNodes>
          <leafValues>
            -1. 9.6078431606292725e-01</leafValues></_>
        <_>
          <internalNodes>
            0 -1 38 5.5949145462363958e-05</internalNodes>
          <leafValues>
            1. -6.3992798328399658e-01</leafValues></_>
        <_>
          <internalNodes>
            0 -1 17 5.5584281653864309e-05</internalNodes>
          <leafValues>
            1. -5.6120896339416504e-01</leafValues></_></weakClassifiers></_>
    <!-- stage 12 -->
    <_>
      <maxWeakCount>3</maxWeakCount>
      <stageThreshold>1.3381476402282715e+00</stageThreshold>
      <weakClassifiers>
        <_>
          <internalNodes>
            0 -1 11 -1.1745225638151169e-03</internalNodes>
          <leafValues>
            -1. 9.6078431606292725e-01</leafValues></_>
        <_>
          <internalNodes>
            0 -1 35 -3.4085111110471189e-05</internalNodes>
          <leafValues>
            -5.4708433151245117e-01 1.</leafValues></_>
        <_>
          <internalNodes>
            0 -1 5 -4.4839744077762589e-05</internalNodes>
          <leafValues>
            -6.2263667583465576e-01 9.8619407415390015e-01</leafValues></_></weakClassifiers></_>
    <!-- stage 13 -->
    <_>
      <maxWeakCount>3</maxWeakCount>
      <stageThreshold>1.2406167984008789e+00</stageThreshold>
      <weakClassifiers>
        <_>
          <internalNodes>
            0 -1 34 3.9370391517877579e-02</internalNodes>
          <leafValues>
            9.7029703855514526e-01 -6.0000002384185791e-01</leafValues></_>
        <_>
          <internalNodes>
            0 -1 30 -1.7423319513909519e-04</internalNodes>
          <leafValues>
            -7.1207475662231445e-01 9.7142314910888672e-01</leafValues></_>
        <_>
          <internalNodes>
            0 -1 8 -5.8711797464638948e-05</internalNodes>
          <leafValues>
            -6.6194921731948853e-01 9.8239451646804810e-01</leafValues></_></weakClassifiers></_>
    <!-- stage 14 -->
    <_>
      <maxWeakCount>2</maxWeakCount>
      <stageThreshold>4.8457390069961548e-01</stageThreshold>
      <weakClassifiers>
        <_>
          <internalNodes>
            0 -1 18 2.8747494798153639e-04</internalNodes>
          <leafValues>
            9.8984771966934204e-01 -2.0000000298023224e-01</leafValues></_>
        <_>
          <internalNodes>
            0 -1 19 2.0361487986519933e-04</internalNodes>
          <leafValues>
            9.7854328155517578e-01 -5.0527381896972656e-01</leafValues></_></weakClassifiers></_>
    <!-- stage 15 -->
    <_>
      <maxWeakCount>1</maxWeakCount>
      <stageThreshold>9.9004977941513062e-01</stageThreshold>
      <weakClassifiers>
        <_>
          <internalNodes>
            0 -1 14 9.2974901199340820e-02</internalNodes>
          <leafValues>
            9.9004977941513062e-01 -1.</leafValues></_></weakClassifiers></_>
    <!-- stage 16 -->
    <_>
      <maxWeakCount>3</maxWeakCount>
      <stageThreshold>1.1586300134658813e+00</stageThreshold>
      <weakClassifiers>
        <_>
          <internalNodes>
            0 -1 9 1.1558549478650093e-02</internalNodes>
          <leafValues>
            9.6078431606292725e-01 -1.</leafValues></_>
        <_>
          <internalNodes>
            0 -1 2 6.1774509958922863e-03</internalNodes>
          <leafValues>
            1. -8.0215430259704590e-01</leafValues></_>
        <_>
          <internalNodes>
            0 -1 1 -4.5284882187843323e-02</internalNodes>
          <leafValues>
            -6.1549681425094604e-01 1.</leafValues></_></weakClassifiers></_>
    <!-- stage 17 -->
    <_>
      <maxWeakCount>1</maxWeakCount>
      <stageThreshold>9.7044336795806885e-01</stageThreshold>
      <weakClassifiers>
        <_>
          <internalNodes>
            0 -1 15 2.2470429539680481e-03</internalNodes>
          <leafValues>
            9.7044336795806885e-01 -1.</leafValues></_></weakClassifiers></_>
    <!-- stage 18 -->
    <_>
      <maxWeakCount>1</maxWeakCount>
      <stageThreshold>9.7044336795806885e-01</stageThreshold>
      <weakClassifiers>
        <_>
          <internalNodes>
            0 -1 20 4.1005529463291168e-02</internalNodes>
          <leafValues>
            9.7044336795806885e-01 -1.</leafValues></_></weakClassifiers></_>
    <!-- stage 19 -->
    <_>
      <maxWeakCount>1</maxWeakCount>
      <stageThreshold>9.7044336795806885e-01</stageThreshold>
      <weakClassifiers>
        <_>
          <internalNodes>
            0 -1 10 1.3680357951670885e-03</internalNodes>
          <leafValues>
            9.7044336795806885e-01 -1.</leafValues></_></weakClassifiers></_></stages>
  <features>
    <_>
      <rects>
        <_>
          0 0 2 1 -1.</_>
        <_>
          1 0 1 1 2.</_></rects>
      <tilted>0</tilted></_>
    <_>
      <rects>
        <_>
          1 27 42 12 -1.</_>
        <_>
          1 31 42 4 3.</_></rects>
      <tilted>0</tilted></_>
    <_>
      <rects>
        <_>
          1 41 6 1 -1.</_>
        <_>
          1 41 3 1 2.</_></rects>
      <tilted>1</tilted></_>
    <_>
      <rects>
        <_>
          2 8 4 4 -1.</_>
        <_>
          2 8 2 2 2.</_>
        <_>
          4 10 2 2 2.</_></rects>
      <tilted>0</tilted></_>
    <_>
      <rects>
        <_>
          3 1 2 2 -1.</_>
        <_>
          3 1 1 1 2.</_>
        <_>
          4 2 1 1 2.</_></rects>
      <tilted>0</tilted></_>
    <_>
      <rects>
        <_>
          4 23 3 1 -1.</_>
        <_>
          5 23 1 1 3.</_></rects>
      <tilted>0</tilted></_>
    <_>
      <rects>
        <_>
          5 28 8 1 -1.</_>
        <_>
          7 28 4 1 2.</_></rects>
      <tilted>0</tilted></_>
    <_>
      <rects>
        <_>
          8 18 34 22 -1.</_>
        <_>
          25 18 17 22 2.</_></rects>
      <tilted>0</tilted></_>
    <_>
      <rects>
        <_>
          9 12 2 2 -1.</_>
        <_>
          9 12 1 1 2.</_>
        <_>
          10 13 1 1 2.</_></rects>
      <tilted>0</tilted></_>
    <_>
      <rects>
        <_>
          9 14 41 3 -1.</_>
        <_>
          9 15 41 1 3.</_></rects>
      <tilted>0</tilted></_>
    <_>
      <rects>
        <_>
          10 20 6 3 -1.</_>
        <_>
          9 21 6 1 3.</_></rects>
      <tilted>1</tilted></_>
    <_>
      <rects>
        <_>
          11 21 3 5 -1.</_>
        <_>
          12 21 1 5 3.</_></rects>
      <tilted>0</tilted></_>
    <_>
      <rects>
        <_>
          12 13 33 2 -1.</_>
        <_>
          12 13 33 1 2.</_></rects>
      <tilted>1</tilted></_>
    <_>
      <rects>
        <_>
          12 24 2 2 -1.</_>
        <_>
          12 24 1 1 2.</_>
        <_>
          13 25 1 1 2.</_></rects>
      <tilted>0</tilted></_>
    <_>
      <rects>
        <_>
          12 31 15 15 -1.</_>
        <_>
          17 36 5 5 9.</_></rects>
      <tilted>0</tilted></_>
    <_>
      <rects>
        <_>
          16 15 3 3 -1.</_>
        <_>
          17 16 1 1 9.</_></rects>
      <tilted>0</tilted></_>
    <_>
      <rects>
        <_>
          17 24 2 8 -1.</_>
        <_>
          17 24 1 4 2.</_>
        <_>
          18 28 1 4 2.</_></rects>
      <tilted>0</tilted></_>
    <_>
      <rects>
        <_>
          19 17 3 1 -1.</_>
        <_>
          20 17 1 1 3.</_></rects>
      <tilted>0</tilted></_>
    <_>
      <rects>
        <_>
          20 33 3 4 -1.</_>
        <_>
          21 33 1 4 3.</_></rects>
      <tilted>0</tilted></_>
    <_>
      <rects>
        <_>
          21 42 3 2 -1.</_>
        <_>
          22 42 1 2 3.</_></rects>
      <tilted>0</tilted></_>
    <_>
      <rects>
        <_>
          23 2 2 22 -1.</_>
        <_>
          23 2 2 11 2.</_></rects>
      <tilted>1</tilted></_>
    <_>
      <rects>
        <_>
          23 29 3 20 -1.</_>
        <_>
          24 29 1 20 3.</_></rects>
      <tilted>0</tilted></_>
    <_>
      <rects>
        <_>
          23 31 15 3 -1.</_>
        <_>
          28 32 5 1 9.</_></rects>
      <tilted>0</tilted></_>
    <_>
      <rects>
        <_>
          24 9 11 18 -1.</_>
        <_>
          24 9 11 9 2.</_></rects>
      <tilted>1</tilted></_>
    <_>
      <rects>
        <_>
          24 40 2 3 -1.</_>
        <_>
          23 41 2 1 3.</_></rects>
      <tilted>1</tilted></_>
    <_>
      <rects>
        <_>
          27 32 4 2 -1.</_>
        <_>
          27 32 2 1 2.</_>
        <_>
          29 33 2 1 2.</_></rects>
      <tilted>0</tilted></_>
    <_>
      <rects>
        <_>
          29 30 10 3 -1.</_>
        <_>
          28 31 10 1 3.</_></rects>
      <tilted>1</tilted></_>
    <_>
      <rects>
        <_>
          30 3 2 4 -1.</_>
        <_>
          30 3 1 2 2.</_>
        <_>
          31 5 1 2 2.</_></rects>
      <tilted>0</tilted></_>
    <_>
      <rects>
        <_>
          31 39 12 2 -1.</_>
        <_>
          31 39 6 1 2.</_>
        <_>
          37 40 6 1 2.</_></rects>
      <tilted>0</tilted></_>
    <_>
      <rects>
        <_>
          32 27 2 2 -1.</_>
        <_>
          32 27 1 1 2.</_>
        <_>
          33 28 1 1 2.</_></rects>
      <tilted>0</tilted></_>
    <_>
      <rects>
        <_>
          32 44 4 2 -1.</_>
        <_>
          33 44 2 2 2.</_></rects>
      <tilted>0</tilted></_>
    <_>
      <rects>
        <_>
          34 48 2 2 -1.</_>
        <_>
          34 48 1 1 2.</_>
        <_>
          35 49 1 1 2.</_></rects>
      <tilted>0</tilted></_>
    <_>
      <rects>
        <_>
          36 20 3 5 -1.</_>
        <_>
          37 20 1 5 3.</_></rects>
      <tilted>0</tilted></_>
    <_>
      <rects>
        <_>
          47 34 3 1 -1.</_>
        <_>
          48 35 1 1 3.</_></rects>
      <tilted>1</tilted></_>
    <_>
      <rects>
        <_>
          48 0 1 46 -1.</_>
        <_>
          48 0 1 23 2.</_></rects>
      <tilted>1</tilted></_>
    <_>
      <rects>
        <_>
          48 7 2 2 -1.</_>
        <_>
          48 7 1 1 2.</_>
        <_>
          49 8 1 1 2.</_></rects>
      <tilted>0</tilted></_>
    <_>
      <rects>
        <_>
          48 19 2 2 -1.</_>
        <_>
          48 19 1 1 2.</_>
        <_>
          49 20 1 1 2.</_></rects>
      <tilted>0</tilted></_>
    <_>
      <rects>
        <_>
          48 24 2 8 -1.</_>
        <_>
          48 24 1 4 2.</_>
        <_>
          49 28 1 4 2.</_></rects>
      <tilted>0</tilted></_>
    <_>
      <rects>
        <_>
          48 36 2 1 -1.</_>
        <_>
          49 36 1 1 2.</_></rects>
      <tilted>0</tilted></_></features></cascade>
</opencv_storage>
