<?xml version="1.0"?>
<opencv_storage>
<cascade>
  <stageType>BOOST</stageType>
  <featureType>HAAR</featureType>
  <height>50</height>
  <width>50</width>
  <stageParams>
    <boostType>GAB</boostType>
    <minHitRate>9.9500000476837158e-01</minHitRate>
    <maxFalseAlarm>5.0000000000000000e-01</maxFalseAlarm>
    <weightTrimRate>9.4999999999999996e-01</weightTrimRate>
    <maxDepth>1</maxDepth>
    <maxWeakCount>100</maxWeakCount></stageParams>
  <featureParams>
    <maxCatCount>0</maxCatCount>
    <featSize>1</featSize>
    <mode>ALL</mode></featureParams>
  <stageNum>20</stageNum>
  <stages>
    <!-- stage 0 -->
    <_>
      <maxWeakCount>1</maxWeakCount>
      <stageThreshold>9.8139536380767822e-01</stageThreshold>
      <weakClassifiers>
        <_>
          <internalNodes>
            0 -1 29 1.9051600247621536e-03</internalNodes>
          <leafValues>
            9.8139536380767822e-01 -6.6666668653488159e-01</leafValues></_></weakClassifiers></_>
    <!-- stage 1 -->
    <_>
      <maxWeakCount>1</maxWeakCount>
      <stageThreshold>9.7044336795806885e-01</stageThreshold>
      <weakClassifiers>
        <_>
          <internalNodes>
            0 -1 17 5.5541819892823696e-03</internalNodes>
          <leafValues>
            9.7044336795806885e-01 -1.</leafValues></_></weakClassifiers></_>
    <!-- stage 2 -->
    <_>
      <maxWeakCount>2</maxWeakCount>
      <stageThreshold>1.8947241306304932e+00</stageThreshold>
      <weakClassifiers>
        <_>
          <internalNodes>
            0 -1 0 1.4407507842406631e-04</internalNodes>
          <leafValues>
            9.6078431606292725e-01 -1.</leafValues></_>
        <_>
          <internalNodes>
            0 -1 6 -3.1584161520004272e-01</internalNodes>
          <leafValues>
            -1. 9.3393981456756592e-01</leafValues></_></weakClassifiers></_>
    <!-- stage 3 -->
    <_>
      <maxWeakCount>3</maxWeakCount>
      <stageThreshold>1.0688582658767700e+00</stageThreshold>
      <weakClassifiers>
        <_>
          <internalNodes>
            0 -1 7 4.6070003882050514e-03</internalNodes>
          <leafValues>
            9.8000001907348633e-01 -4.2857143282890320e-01</leafValues></_>
        <_>
          <internalNodes>
            0 -1 28 -1.2492265086621046e-03</internalNodes>
          <leafValues>
            -8.9287692308425903e-01 9.5049899816513062e-01</leafValues></_>
        <_>
          <internalNodes>
            0 -1 33 8.0483507190365344e-05</internalNodes>
          <leafValues>
            9.8173522949218750e-01 -6.2340551614761353e-01</leafValues></_></weakClassifiers></_>
    <!-- stage 4 -->
    <_>
      <maxWeakCount>3</maxWeakCount>
      <stageThreshold>1.1506748199462891e+00</stageThreshold>
      <weakClassifiers>
        <_>
          <internalNodes>
            0 -1 4 -1.4898324152454734e-03</internalNodes>
          <leafValues>
            -1. 9.6078431606292725e-01</leafValues></_>
        <_>
          <internalNodes>
            0 -1 34 -2.7068675262853503e-04</internalNodes>
          <leafValues>
            -7.4462652206420898e-01 1.</leafValues></_>
        <_>
          <internalNodes>
            0 -1 8 -6.7925037001259625e-05</internalNodes>
          <leafValues>
            -6.9223922491073608e-01 9.3451708555221558e-01</leafValues></_></weakClassifiers></_>
    <!-- stage 5 -->
    <_>
      <maxWeakCount>3</maxWeakCount>
      <stageThreshold>1.1586300134658813e+00</stageThreshold>
      <weakClassifiers>
        <_>
          <internalNodes>
            0 -1 37 1.0972340404987335e-01</internalNodes>
          <leafValues>
            9.6078431606292725e-01 -1.</leafValues></_>
        <_>
          <internalNodes>
            0 -1 25 5.0421792548149824e-04</internalNodes>
          <leafValues>
            1. -8.0215430259704590e-01</leafValues></_>
        <_>
          <internalNodes>
            0 -1 20 -7.8795812441967428e-05</internalNodes>
          <leafValues>
            -5.0426697731018066e-01 1.</leafValues></_></weakClassifiers></_>
    <!-- stage 6 -->
    <_>
      <maxWeakCount>3</maxWeakCount>
      <stageThreshold>1.0407797098159790e+00</stageThreshold>
      <weakClassifiers>
        <_>
          <internalNodes>
            0 -1 9 7.8101910185068846e-04</internalNodes>
          <leafValues>
            9.7029703855514526e-01 -6.0000002384185791e-01</leafValues></_>
        <_>
          <internalNodes>
            0 -1 12 2.6632724329829216e-03</internalNodes>
          <leafValues>
            9.5805513858795166e-01 -9.1429853439331055e-01</leafValues></_>
        <_>
          <internalNodes>
            0 -1 14 3.6761511000804603e-04</internalNodes>
          <leafValues>
            9.8478120565414429e-01 -6.2110173702239990e-01</leafValues></_></weakClassifiers></_>
    <!-- stage 7 -->
    <_>
      <maxWeakCount>3</maxWeakCount>
      <stageThreshold>1.3485157489776611e+00</stageThreshold>
      <weakClassifiers>
        <_>
          <internalNodes>
            0 -1 30 -3.6479970440268517e-03</internalNodes>
          <leafValues>
            -6.0000002384185791e-01 9.7029703855514526e-01</leafValues></_>
        <_>
          <internalNodes>
            0 -1 3 -2.6941499527310953e-05</internalNodes>
          <leafValues>
            -4.5096823573112488e-01 9.7070038318634033e-01</leafValues></_>
        <_>
          <internalNodes>
            0 -1 1 6.1627087416127324e-04</internalNodes>
          <leafValues>
            9.7781538963317871e-01 -5.8759588003158569e-01</leafValues></_></weakClassifiers></_>
    <!-- stage 8 -->
    <_>
      <maxWeakCount>1</maxWeakCount>
      <stageThreshold>9.7044336795806885e-01</stageThreshold>
      <weakClassifiers>
        <_>
          <internalNodes>
            0 -1 19 -6.5576459746807814e-04</internalNodes>
          <leafValues>
            -1. 9.7044336795806885e-01</leafValues></_></weakClassifiers></_>
    <!-- stage 9 -->
    <_>
      <maxWeakCount>1</maxWeakCount>
      <stageThreshold>9.8019802570343018e-01</stageThreshold>
      <weakClassifiers>
        <_>
          <internalNodes>
            0 -1 15 5.7523204013705254e-03</internalNodes>
          <leafValues>
            9.8019802570343018e-01 -1.</leafValues></_></weakClassifiers></_>
    <!-- stage 10 -->
    <_>
      <maxWeakCount>1</maxWeakCount>
      <stageThreshold>9.7044336795806885e-01</stageThreshold>
      <weakClassifiers>
        <_>
          <internalNodes>
            0 -1 32 -3.3721371437422931e-04</internalNodes>
          <leafValues>
            -1. 9.7044336795806885e-01</leafValues></_></weakClassifiers></_>
    <!-- stage 11 -->
    <_>
      <maxWeakCount>3</maxWeakCount>
      <stageThreshold>1.3075591325759888e+00</stageThreshold>
      <weakClassifiers>
        <_>
          <internalNodes>
            0 -1 5 -3.1275901710614562e-04</internalNodes>
          <leafValues>
            -1. 9.6078431606292725e-01</leafValues></_>
        <_>
          <internalNodes>
            0 -1 31 1.4068014570511878e-04</internalNodes>
          <leafValues>
            1. -6.3992798328399658e-01</leafValues></_>
        <_>
          <internalNodes>
            0 -1 38 -6.4637264586053789e-05</internalNodes>
          <leafValues>
            -4.7499838471412659e-01 9.8670274019241333e-01</leafValues></_></weakClassifiers></_>
    <!-- stage 12 -->
    <_>
      <maxWeakCount>3</maxWeakCount>
      <stageThreshold>1.1635773181915283e+00</stageThreshold>
      <weakClassifiers>
        <_>
          <internalNodes>
            0 -1 27 1.0499591735424474e-04</internalNodes>
          <leafValues>
            9.8000001907348633e-01 -4.2857143282890320e-01</leafValues></_>
        <_>
          <internalNodes>
            0 -1 22 -2.4387780576944351e-03</internalNodes>
          <leafValues>
            -7.9664582014083862e-01 9.5026260614395142e-01</leafValues></_>
        <_>
          <internalNodes>
            0 -1 39 -1.8312197062186897e-04</internalNodes>
          <leafValues>
            -6.0851168632507324e-01 9.8022317886352539e-01</leafValues></_></weakClassifiers></_>
    <!-- stage 13 -->
    <_>
      <maxWeakCount>1</maxWeakCount>
      <stageThreshold>9.9004977941513062e-01</stageThreshold>
      <weakClassifiers>
        <_>
          <internalNodes>
            0 -1 13 1.2258329987525940e-01</internalNodes>
          <leafValues>
            9.9004977941513062e-01 -1.</leafValues></_></weakClassifiers></_>
    <!-- stage 14 -->
    <_>
      <maxWeakCount>1</maxWeakCount>
      <stageThreshold>9.7044336795806885e-01</stageThreshold>
      <weakClassifiers>
        <_>
          <internalNodes>
            0 -1 24 -5.6385248899459839e-03</internalNodes>
          <leafValues>
            -1. 9.7044336795806885e-01</leafValues></_></weakClassifiers></_>
    <!-- stage 15 -->
    <_>
      <maxWeakCount>2</maxWeakCount>
      <stageThreshold>3.1969028711318970e-01</stageThreshold>
      <weakClassifiers>
        <_>
          <internalNodes>
            0 -1 23 -5.3862947970628738e-04</internalNodes>
          <leafValues>
            -6.6666668653488159e-01 9.8009949922561646e-01</leafValues></_>
        <_>
          <internalNodes>
            0 -1 11 4.5619113370776176e-03</internalNodes>
          <leafValues>
            9.8635697364807129e-01 -5.9471398591995239e-01</leafValues></_></weakClassifiers></_>
    <!-- stage 16 -->
    <_>
      <maxWeakCount>1</maxWeakCount>
      <stageThreshold>9.7044336795806885e-01</stageThreshold>
      <weakClassifiers>
        <_>
          <internalNodes>
            0 -1 2 3.3696994185447693e-01</internalNodes>
          <leafValues>
            9.7044336795806885e-01 -1.</leafValues></_></weakClassifiers></_>
    <!-- stage 17 -->
    <_>
      <maxWeakCount>3</maxWeakCount>
      <stageThreshold>1.0864368677139282e+00</stageThreshold>
      <weakClassifiers>
        <_>
          <internalNodes>
            0 -1 36 -1.5206594252958894e-04</internalNodes>
          <leafValues>
            -6.6666668653488159e-01 9.8009949922561646e-01</leafValues></_>
        <_>
          <internalNodes>
            0 -1 16 7.6268419623374939e-02</internalNodes>
          <leafValues>
            9.6020889282226562e-01 -7.8878116607666016e-01</leafValues></_>
        <_>
          <internalNodes>
            0 -1 35 -9.9273835076019168e-05</internalNodes>
          <leafValues>
            -8.5387152433395386e-01 9.0891999006271362e-01</leafValues></_></weakClassifiers></_>
    <!-- stage 18 -->
    <_>
      <maxWeakCount>3</maxWeakCount>
      <stageThreshold>1.0559984445571899e+00</stageThreshold>
      <weakClassifiers>
        <_>
          <internalNodes>
            0 -1 18 3.9377100765705109e-02</internalNodes>
          <leafValues>
            9.7029703855514526e-01 -6.0000002384185791e-01</leafValues></_>
        <_>
          <internalNodes>
            0 -1 21 -1.1496504303067923e-03</internalNodes>
          <leafValues>
            -9.1429853439331055e-01 9.5805513858795166e-01</leafValues></_>
        <_>
          <internalNodes>
            0 -1 10 -2.6770663680508733e-05</internalNodes>
          <leafValues>
            -4.1219279170036316e-01 1.</leafValues></_></weakClassifiers></_>
    <!-- stage 19 -->
    <_>
      <maxWeakCount>1</maxWeakCount>
      <stageThreshold>9.7044336795806885e-01</stageThreshold>
      <weakClassifiers>
        <_>
          <internalNodes>
            0 -1 26 1.4176005497574806e-03</internalNodes>
          <leafValues>
            9.7044336795806885e-01 -1.</leafValues></_></weakClassifiers></_></stages>
  <features>
    <_>
      <rects>
        <_>
          0 0 2 1 -1.</_>
        <_>
          1 0 1 1 2.</_></rects>
      <tilted>0</tilted></_>
    <_>
      <rects>
        <_>
          0 0 2 49 -1.</_>
        <_>
          1 0 1 49 2.</_></rects>
      <tilted>0</tilted></_>
    <_>
      <rects>
        <_>
          0 0 39 30 -1.</_>
        <_>
          0 10 39 10 3.</_></rects>
      <tilted>0</tilted></_>
    <_>
      <rects>
        <_>
          0 6 2 2 -1.</_>
        <_>
          0 6 1 1 2.</_>
        <_>
          1 7 1 1 2.</_></rects>
      <tilted>0</tilted></_>
    <_>
      <rects>
        <_>
          1 0 6 4 -1.</_>
        <_>
          1 0 3 2 2.</_>
        <_>
          4 2 3 2 2.</_></rects>
      <tilted>0</tilted></_>
    <_>
      <rects>
        <_>
          1 2 4 2 -1.</_>
        <_>
          1 2 2 1 2.</_>
        <_>
          3 3 2 1 2.</_></rects>
      <tilted>0</tilted></_>
    <_>
      <rects>
        <_>
          1 22 29 28 -1.</_>
        <_>
          1 36 29 14 2.</_></rects>
      <tilted>0</tilted></_>
    <_>
      <rects>
        <_>
          3 12 33 2 -1.</_>
        <_>
          3 12 33 1 2.</_></rects>
      <tilted>1</tilted></_>
    <_>
      <rects>
        <_>
          4 25 3 1 -1.</_>
        <_>
          5 25 1 1 3.</_></rects>
      <tilted>0</tilted></_>
    <_>
      <rects>
        <_>
          6 0 2 12 -1.</_>
        <_>
          7 0 1 12 2.</_></rects>
      <tilted>0</tilted></_>
    <_>
      <rects>
        <_>
          8 31 2 1 -1.</_>
        <_>
          9 31 1 1 2.</_></rects>
      <tilted>0</tilted></_>
    <_>
      <rects>
        <_>
          9 9 41 4 -1.</_>
        <_>
          9 10 41 2 2.</_></rects>
      <tilted>0</tilted></_>
    <_>
      <rects>
        <_>
          10 21 14 4 -1.</_>
        <_>
          9 22 14 2 2.</_></rects>
      <tilted>1</tilted></_>
    <_>
      <rects>
        <_>
          10 32 36 12 -1.</_>
        <_>
          10 35 36 6 2.</_></rects>
      <tilted>0</tilted></_>
    <_>
      <rects>
        <_>
          10 33 4 7 -1.</_>
        <_>
          11 33 2 7 2.</_></rects>
      <tilted>0</tilted></_>
    <_>
      <rects>
        <_>
          11 0 16 1 -1.</_>
        <_>
          19 0 8 1 2.</_></rects>
      <tilted>0</tilted></_>
    <_>
      <rects>
        <_>
          12 5 19 12 -1.</_>
        <_>
          12 5 19 6 2.</_></rects>
      <tilted>1</tilted></_>
    <_>
      <rects>
        <_>
          12 13 33 2 -1.</_>
        <_>
          12 13 33 1 2.</_></rects>
      <tilted>1</tilted></_>
    <_>
      <rects>
        <_>
          13 7 11 24 -1.</_>
        <_>
          13 13 11 12 2.</_></rects>
      <tilted>0</tilted></_>
    <_>
      <rects>
        <_>
          14 23 1 3 -1.</_>
        <_>
          13 24 1 1 3.</_></rects>
      <tilted>1</tilted></_>
    <_>
      <rects>
        <_>
          16 24 3 3 -1.</_>
        <_>
          17 24 1 3 3.</_></rects>
      <tilted>0</tilted></_>
    <_>
      <rects>
        <_>
          16 37 8 2 -1.</_>
        <_>
          16 37 4 1 2.</_>
        <_>
          20 38 4 1 2.</_></rects>
      <tilted>0</tilted></_>
    <_>
      <rects>
        <_>
          18 17 4 30 -1.</_>
        <_>
          19 17 2 30 2.</_></rects>
      <tilted>0</tilted></_>
    <_>
      <rects>
        <_>
          19 15 1 4 -1.</_>
        <_>
          19 16 1 2 2.</_></rects>
      <tilted>0</tilted></_>
    <_>
      <rects>
        <_>
          19 44 30 2 -1.</_>
        <_>
          19 44 15 1 2.</_>
        <_>
          34 45 15 1 2.</_></rects>
      <tilted>0</tilted></_>
    <_>
      <rects>
        <_>
          20 0 4 5 -1.</_>
        <_>
          21 0 2 5 2.</_></rects>
      <tilted>0</tilted></_>
    <_>
      <rects>
        <_>
          20 0 12 1 -1.</_>
        <_>
          23 0 6 1 2.</_></rects>
      <tilted>0</tilted></_>
    <_>
      <rects>
        <_>
          20 33 3 2 -1.</_>
        <_>
          21 33 1 2 3.</_></rects>
      <tilted>0</tilted></_>
    <_>
      <rects>
        <_>
          22 34 3 2 -1.</_>
        <_>
          23 35 1 2 3.</_></rects>
      <tilted>1</tilted></_>
    <_>
      <rects>
        <_>
          23 29 3 20 -1.</_>
        <_>
          24 29 1 20 3.</_></rects>
      <tilted>0</tilted></_>
    <_>
      <rects>
        <_>
          24 0 3 46 -1.</_>
        <_>
          25 0 1 46 3.</_></rects>
      <tilted>0</tilted></_>
    <_>
      <rects>
        <_>
          26 9 3 3 -1.</_>
        <_>
          27 9 1 3 3.</_></rects>
      <tilted>0</tilted></_>
    <_>
      <rects>
        <_>
          27 32 4 2 -1.</_>
        <_>
          27 32 2 1 2.</_>
        <_>
          29 33 2 1 2.</_></rects>
      <tilted>0</tilted></_>
    <_>
      <rects>
        <_>
          34 8 1 2 -1.</_>
        <_>
          34 9 1 1 2.</_></rects>
      <tilted>0</tilted></_>
    <_>
      <rects>
        <_>
          35 25 4 3 -1.</_>
        <_>
          36 25 2 3 2.</_></rects>
      <tilted>0</tilted></_>
    <_>
      <rects>
        <_>
          38 24 2 2 -1.</_>
        <_>
          38 24 1 1 2.</_>
        <_>
          39 25 1 1 2.</_></rects>
      <tilted>0</tilted></_>
    <_>
      <rects>
        <_>
          43 28 3 1 -1.</_>
        <_>
          44 28 1 1 3.</_></rects>
      <tilted>0</tilted></_>
    <_>
      <rects>
        <_>
          45 0 3 42 -1.</_>
        <_>
          45 0 3 21 2.</_></rects>
      <tilted>1</tilted></_>
    <_>
      <rects>
        <_>
          45 17 4 2 -1.</_>
        <_>
          46 17 2 2 2.</_></rects>
      <tilted>0</tilted></_>
    <_>
      <rects>
        <_>
          48 8 2 20 -1.</_>
        <_>
          48 8 1 10 2.</_>
        <_>
          49 18 1 10 2.</_></rects>
      <tilted>0</tilted></_></features></cascade>
</opencv_storage>
